{
  "obs_dim": 46,
  "action_dim": 2,
  "num_agents": 2,
  "state_dim": 92,
  "action_std_scale": 0.32956798242003155,
  "action_std_min": 0.1,
  "action_std_decay": 0.995,
  "actor": {
    "weights": [
      [
        0.029573187982760325,
        -0.12113441817276374
      ],
      [
        -0.030647375148946644,
        -0.08836611233948267
      ],
      [
        0.0526327905217215,
        -0.046157783408164434
      ],
      [
        0.050950394334563213,
        -0.060184784729541745
      ],
      [
        -0.012214322934462098,
        -0.07415668112182246
      ],
      [
        -0.020442701209982643,
        -0.005259399929070759
      ],
      [
        -0.07342403838352524,
        -0.0423831674364024
      ],
      [
        0.006394975690512495,
        0.008442098274036195
      ],
      [
        -0.046090898669396745,
        0.015242289516673372
      ],
      [
        0.049904761932552145,
        -0.0766584929948303
      ],
      [
        0.05884273950899179,
        0.020892009655345635
      ],
      [
        -0.02341923531590621,
        -0.05573522848377208
      ],
      [
        0.09104979473862614,
        -0.0486189736922783
      ],
      [
        -0.05645835434853343,
        -0.06742598070870609
      ],
      [
        0.07942150266443233,
        0.0030087026384433124
      ],
      [
        0.049140523723900834,
        0.036757085871010856
      ],
      [
        0.005796494632752114,
        0.0756985222366993
      ],
      [
        -0.019434499646663446,
        0.008326501003716319
      ],
      [
        0.05270474628047918,
        0.018963160378279373
      ],
      [
        0.05787310404972436,
        0.01237634324108193
      ],
      [
        0.03273149379438775,
        -0.07266809861509405
      ],
      [
        -0.043536275895752506,
        -0.03369792582366286
      ],
      [
        -0.07903162019043161,
        -0.036848456132483505
      ],
      [
        -0.06356158537854871,
        -0.034448459734298977
      ],
      [
        0.04628473390374485,
        -0.02774309739039526
      ],
      [
        -0.018440838794242208,
        -0.040676066622828126
      ],
      [
        -0.04498017531650998,
        0.0765564101617125
      ],
      [
        0.01661354229927485,
        0.014675385630251324
      ],
      [
        -0.054276545420550604,
        0.059772997630131545
      ],
      [
        -0.09683503782766426,
        -0.03296382385784951
      ],
      [
        0.08497104518558876,
        0.012812229438970263
      ],
      [
        0.007416853027983899,
        0.029644265677316654
      ],
      [
        0.049084709466797195,
        0.0534162533322779
      ],
      [
        -0.03678464342131621,
        -0.0775490662632581
      ],
      [
        -0.020315363967495274,
        -0.037039173909051745
      ],
      [
        -0.03368529216023714,
        0.05282573157605751
      ],
      [
        0.05742931134437364,
        -0.0343001358199914
      ],
      [
        -0.0018239231041863556,
        -0.029765987929648713
      ],
      [
        0.06509913203093705,
        -0.014418012554524887
      ],
      [
        -0.05719495422102784,
        -0.07123205777467062
      ],
      [
        -0.0007894102917620494,
        -0.08659456103738945
      ],
      [
        0.04259095230325015,
        0.10152385730443497
      ],
      [
        -0.0016316143871163685,
        -0.034057135111279516
      ],
      [
        0.08521171984315726,
        -0.00768855980410238
      ],
      [
        -0.03013084123956169,
        -0.10989740155996443
      ],
      [
        -0.05777915885650179,
        -0.017335637287892898
      ]
    ],
    "biases": [
      0.014952649946780049,
      -0.07495274885744449
    ],
    "log_std": [
      -1.0502865413006552,
      -1.0469385669711808
    ]
  },
  "critic": {
    "weights": [
      0.32810242038095583,
      0.2849138346387228,
      0.5561565741244029,
      0.03507914201373592,
      0.05302813455537749,
      0.11530219009507435,
      0.06661113432054731,
      0.1195935585337472,
      -0.03638855971080908,
      0.021520429007808234,
      0.024281054926732114,
      0.004437780605692307,
      0.04033620804795512,
      0.01768218726229775,
      -0.02662474659226308,
      -0.006523474933089503,
      -0.004627629367079354,
      0.04538159275210801,
      0.037585294037819406,
      -0.023661094924890925,
      5.8611305029834804e-05,
      -0.03213481194698686,
      0.08817999729756429,
      0.0404678535150445,
      0.09223523473002394,
      0.033398246045786006,
      0.03607068471908428,
      0.02609642442025513,
      0.0879993504407433,
      0.06987164884303543,
      0.06474123538908828,
      -0.027823175697894404,
      -0.052511455539690464,
      0.011705534985220417,
      0.06355995926326141,
      0.1479627007688859,
      -0.006078415454783091,
      0.02974588339779159,
      0.022253288223036644,
      0.11858315399705187,
      0.1383334093228457,
      0.05748050720290697,
      -0.04417124354128044,
      0.016438925792704454,
      0.027444098663944642,
      0.0935547249664668,
      0.33794126497026716,
      0.25498523148051944,
      0.5972405243282892,
      0.011090377373569027,
      -0.022753589541181306,
      0.10089699316122658,
      -0.004100198575594367,
      -0.016600143407642518,
      -0.008533729216963121,
      0.023544859837208845,
      0.017032319702051834,
      -0.0154123743385427,
      0.1619056912512501,
      0.034491102323130844,
      0.07732559670174781,
      0.0017575841035590636,
      -0.03789958041317343,
      -0.027530266296844266,
      -0.016191443785254465,
      0.008830871845723329,
      -0.0269885267403423,
      -0.027978261554844053,
      -0.036790673375022113,
      0.013851043291822681,
      0.03654786743381627,
      0.044128008704929736,
      0.06605978397058411,
      -0.042914265011134656,
      -0.02619953656310048,
      0.03145447902829766,
      -0.03656915626238739,
      -0.04158975361872539,
      0.05437384963474566,
      0.03421937117359222,
      0.10460868856678414,
      0.13163050663490375,
      -0.06586675938269161,
      -0.03562598812340501,
      -0.004764138646531576,
      0.1334566657274955,
      0.07801107569727786,
      0.007600598010162466,
      -0.034339152802806396,
      0.049176782406471026,
      0.17003086209013848,
      0.06446136436408091
    ],
    "bias": 0.6011634631215965
  }
}