{
  "obs_dim": 46,
  "action_dim": 2,
  "num_agents": 2,
  "state_dim": 92,
  "action_std_scale": 0.32956798242003155,
  "action_std_min": 0.1,
  "action_std_decay": 0.995,
  "actor": {
    "weights": [
      [
        0.032563135774439755,
        -0.11256662232914069
      ],
      [
        -0.027064595994980335,
        -0.07990726680481759
      ],
      [
        0.059769107961145915,
        -0.041073068961578064
      ],
      [
        0.05109462253502257,
        -0.061801447661612684
      ],
      [
        -0.012217906921122207,
        -0.07430669429091181
      ],
      [
        -0.022876410322669426,
        -0.004283885314295827
      ],
      [
        -0.07340638987786904,
        -0.04303809077218419
      ],
      [
        0.006705530241852681,
        0.006146330673500887
      ],
      [
        -0.04500448413473396,
        0.015352412545150778
      ],
      [
        0.049349233950815787,
        -0.07665536314188992
      ],
      [
        0.056335271033276124,
        0.01942432507419171
      ],
      [
        -0.023652135440869602,
        -0.055840057418084864
      ],
      [
        0.0885200206178231,
        -0.047121224213625974
      ],
      [
        -0.0575050141194531,
        -0.06772533312070375
      ],
      [
        0.07496073020032575,
        -0.00047943488074807337
      ],
      [
        0.049140523723900834,
        0.036757085871010856
      ],
      [
        0.005796494632752114,
        0.0756985222366993
      ],
      [
        -0.019434499646663446,
        0.008326501003716319
      ],
      [
        0.05270474628047918,
        0.018963160378279373
      ],
      [
        0.05787310404972436,
        0.01237634324108193
      ],
      [
        0.03273149379438775,
        -0.07266809861509405
      ],
      [
        -0.043536275895752506,
        -0.03369792582366286
      ],
      [
        -0.07888739198997229,
        -0.038465119064554444
      ],
      [
        -0.06356516936520883,
        -0.03459847290338832
      ],
      [
        0.043851024791058055,
        -0.026767582775620326
      ],
      [
        -0.018423190288586005,
        -0.04133098995860992
      ],
      [
        -0.04344640039555388,
        0.0792094864207959
      ],
      [
        0.015694438491633014,
        0.01083951716641657
      ],
      [
        -0.05373970112410541,
        0.06042029575785176
      ],
      [
        -0.09600414146683667,
        -0.035498070831552556
      ],
      [
        0.08392029706902225,
        0.0089946676880985
      ],
      [
        0.008477242891544536,
        0.029622430577672818
      ],
      [
        0.04655617573233865,
        0.05150331642819939
      ],
      [
        -0.03824896548588996,
        -0.07757664691814517
      ],
      [
        -0.028832722502937783,
        -0.03751010827217656
      ],
      [
        -0.03861784528639139,
        0.059688342753322805
      ],
      [
        0.05918574673558554,
        -0.03279381243423042
      ],
      [
        -0.005511254010507128,
        -0.03301716177886756
      ],
      [
        0.06455141041839237,
        -0.011671870333619355
      ],
      [
        -0.057276384015227784,
        -0.061367568638516085
      ],
      [
        -0.003400365234145282,
        -0.07734810217199417
      ],
      [
        0.04094228617254859,
        0.09578810037329787
      ],
      [
        -0.00034310945659301586,
        -0.022654665029827277
      ],
      [
        0.08427718672224031,
        -0.00551855652198309
      ],
      [
        -0.03531417541979965,
        -0.10402832999470978
      ],
      [
        -0.060957573736519714,
        -0.008584503489477988
      ]
    ],
    "biases": [
      0.02210816469119217,
      -0.07009030162464548
    ],
    "log_std": [
      -1.0512084270018043,
      -1.0487688735834502
    ]
  },
  "critic": {
    "weights": [
      0.25741025481144997,
      0.21856925011440168,
      0.4166814818488177,
      0.02647854035077971,
      0.05236767063506376,
      0.08297025046292379,
      0.06277005852967399,
      0.10426474634787045,
      -0.03865620929530332,
      0.021360351565038765,
      0.020767412550202025,
      0.004137445096064582,
      0.02888222748505317,
      0.016313544552458044,
      -0.03365203134532326,
      -0.006523474933089503,
      -0.004627629367079354,
      0.04538159275210801,
      0.037585294037819406,
      -0.023661094924890925,
      5.8611305029834804e-05,
      -0.03213481194698686,
      0.0795793956346081,
      0.03980738959473076,
      0.05990329509787337,
      0.02955717025491267,
      0.03270582299775801,
      0.014439687204987447,
      0.0779043024982134,
      0.05490533237634614,
      0.05883776217727111,
      -0.022330105944096373,
      -0.05953213012460806,
      0.005157656199959167,
      0.039573518365898744,
      0.12379979526465194,
      0.004231064774503561,
      0.026162560703485434,
      0.010496591469477028,
      0.07070574644457828,
      0.10717486977696947,
      0.049194349544673124,
      -0.045481782827631184,
      0.010318829471263991,
      0.0017694209503865696,
      0.07027676135112035,
      0.264981449816267,
      0.18848056951342887,
      0.4577741788547618,
      0.0075767349970389366,
      -0.023053925050809027,
      0.08944301259832464,
      -0.005468841285434074,
      -0.0236274281607027,
      -0.006266079632468878,
      0.023704937279978314,
      0.008431718039095622,
      -0.01607283825885643,
      0.12957375161909954,
      0.030650026532257502,
      0.06199678451587103,
      0.0017575841035590636,
      -0.03789958041317343,
      -0.027530266296844266,
      -0.016191443785254465,
      0.008830871845723329,
      -0.0269885267403423,
      -0.027978261554844053,
      -0.040304315751552196,
      0.013550707782194955,
      0.025093886870914326,
      0.042759365995090025,
      0.05495014625914061,
      -0.042914265011134656,
      -0.02619953656310048,
      0.02148647194727998,
      -0.03657336572910672,
      -0.038876673443862295,
      0.045758115595269065,
      0.02795759292603474,
      0.07964041609877119,
      0.10685054702366194,
      -0.04761939490853442,
      -0.04030443284140719,
      -0.015048570829134921,
      0.09319358133977784,
      0.052122300477192685,
      0.0031111954791512345,
      -0.03151869478508016,
      0.04038248860325242,
      0.13445272358768773,
      0.03188581355694736
    ],
    "bias": 0.4612515139540749
  }
}